{
  "features_info":
    {
      "float_features":
        [
          {
            "borders":
              [
                0.5
              ],
            "feature_id":"OptionType",
            "feature_index":0,
            "flat_feature_index":0,
            "has_nans":false,
            "nan_value_treatment":"AsIs"
          },
          {
            "borders":
              [
                55,
                65,
                75,
                85,
                95,
                105,
                115,
                125,
                135,
                145
              ],
            "feature_id":"Strike",
            "feature_index":1,
            "flat_feature_index":1,
            "has_nans":false,
            "nan_value_treatment":"AsIs"
          },
          {
            "borders":
              [
                50.278244018554688,
                50.703220367431641,
                51.211029052734375,
                51.677886962890625,
                52.022178649902344,
                52.327114105224609,
                52.671592712402344,
                53.160606384277344,
                53.594837188720703,
                54.0035400390625,
                54.403537750244141,
                54.827564239501953,
                55.096450805664063,
                55.531959533691406,
                55.871936798095703,
                56.367546081542969,
                56.625694274902344,
                56.938007354736328,
                57.373039245605469,
                57.784980773925781,
                58.1385498046875,
                58.41943359375,
                58.841194152832031,
                59.308914184570313,
                59.684165954589844,
                60.075160980224609,
                60.407722473144531,
                60.655570983886719,
                61.01312255859375,
                61.436008453369141,
                61.776241302490234,
                62.238018035888672,
                62.603645324707031,
                62.939041137695313,
                63.22515869140625,
                63.543258666992188,
                63.795822143554688,
                64.199661254882813,
                64.536056518554688,
                64.8389892578125,
                65.208221435546875,
                65.472633361816406,
                65.822998046875,
                66.284736633300781,
                66.577629089355469,
                66.967514038085938,
                67.240791320800781,
                67.655815124511719,
                68.045448303222656,
                68.329521179199219,
                68.718429565429688,
                69.17303466796875,
                69.517044067382813,
                69.881156921386719,
                70.228904724121094,
                70.557815551757813,
                70.943222045898438,
                71.402763366699219,
                71.736190795898438,
                72.151321411132813,
                72.545845031738281,
                72.891716003417969,
                73.274986267089844,
                73.668060302734375,
                74.069320678710938,
                74.49755859375,
                75.308502197265625,
                75.70306396484375,
                76.078575134277344,
                76.339813232421875,
                76.772415161132813,
                77.161788940429688,
                77.47021484375,
                77.852294921875,
                78.299728393554688,
                78.753860473632813,
                79.249160766601563,
                79.710777282714844,
                80.169532775878906,
                80.7196044921875,
                80.977958679199219,
                81.344924926757813,
                81.812103271484375,
                82.216629028320313,
                82.699996948242188,
                83.146026611328125,
                83.539665222167969,
                84.011245727539063,
                84.362701416015625,
                84.780815124511719,
                85.163368225097656,
                85.521377563476563,
                85.932510375976563,
                86.246658325195313,
                86.590629577636719,
                86.968795776367188,
                87.39312744140625,
                87.86529541015625,
                88.352691650390625,
                88.818817138671875,
                89.255523681640625,
                89.745269775390625,
                90.138633728027344,
                90.612602233886719,
                91.075263977050781,
                91.409317016601563,
                91.790199279785156,
                92.175949096679688,
                92.655975341796875,
                93.07745361328125,
                93.450897216796875,
                93.861221313476563,
                94.34716796875,
                94.799385070800781,
                95.165374755859375,
                95.395767211914063,
                96.60040283203125,
                97.012222290039063,
                97.505706787109375,
                97.907455444335938,
                98.319999694824219,
                98.616241455078125,
                99.018600463867188,
                99.402725219726563,
                99.78656005859375,
                100.53640747070313,
                101.0015869140625,
                101.42903137207031,
                101.80178070068359,
                102.28748321533203,
                102.61761474609375,
                103.07939147949219,
                103.52159118652344,
                103.92485046386719,
                104.27601623535156,
                104.706298828125,
                105.04403686523438,
                105.40892028808594,
                105.87236022949219,
                106.59794616699219,
                106.92079162597656,
                107.18113708496094,
                107.53191375732422,
                107.91261291503906,
                108.31290435791016,
                108.64300537109375,
                108.96524047851563,
                109.28092956542969,
                109.72874450683594,
                110.01899719238281,
                110.43580627441406,
                111.24021911621094,
                111.61103820800781,
                112.03173828125,
                112.28410339355469,
                112.63116455078125,
                112.91581726074219,
                113.31932067871094,
                113.7130126953125,
                114.1390380859375,
                114.70527648925781,
                115.20071411132813,
                115.44253540039063,
                115.80772399902344,
                116.1240234375,
                116.60971069335938,
                117.03312683105469,
                117.36674499511719,
                117.74777221679688,
                118.12603759765625,
                118.460205078125,
                118.92868041992188,
                119.33368682861328,
                119.62721252441406,
                119.93965148925781,
                120.19508361816406,
                120.49772644042969,
                121.4700927734375,
                121.73492431640625,
                122.28961181640625,
                122.75877380371094,
                123.18378448486328,
                123.52139282226563,
                123.84313201904297,
                124.15502166748047,
                124.62764739990234,
                125.05206298828125,
                125.42654418945313,
                126.01307678222656,
                126.39946746826172,
                126.83176422119141,
                127.25296020507813,
                127.58480834960938,
                128.19569396972656,
                128.5172119140625,
                128.94358825683594,
                129.30073547363281,
                129.87890625,
                130.21525573730469,
                130.65469360351563,
                131.281982421875,
                131.53338623046875,
                131.92172241210938,
                132.35281372070313,
                132.69912719726563,
                132.99557495117188,
                133.42689514160156,
                133.8033447265625,
                134.30361938476563,
                134.69161987304688,
                135.05300903320313,
                135.43136596679688,
                135.71969604492188,
                136.07553100585938,
                136.44329833984375,
                136.93002319335938,
                137.3861083984375,
                137.89993286132813,
                138.28591918945313,
                138.70101928710938,
                138.99931335449219,
                139.43951416015625,
                139.988525390625,
                140.38453674316406,
                140.72964477539063,
                141.0435791015625,
                141.50445556640625,
                141.97592163085938,
                142.494873046875,
                143.00869750976563,
                143.461669921875,
                143.79815673828125,
                144.54740905761719,
                144.95697021484375,
                145.326171875,
                145.6873779296875,
                146.12342834472656,
                146.39566040039063,
                146.84858703613281,
                147.32763671875,
                147.640380859375,
                148.09283447265625,
                148.52313232421875,
                148.87173461914063,
                149.2412109375,
                149.63723754882813
              ],
            "feature_id":"Spot",
            "feature_index":2,
            "flat_feature_index":2,
            "has_nans":false,
            "nan_value_treatment":"AsIs"
          },
          {
            "borders":
              [
                0.27426421642303467,
                0.28136062622070313,
                0.29827672243118286,
                0.31288039684295654,
                0.31757122278213501,
                0.32452169060707092,
                0.33187192678451538,
                0.33786547183990479,
                0.34594327211380005,
                0.35324782133102417,
                0.35926032066345215,
                0.36664056777954102,
                0.3724595308303833,
                0.39241600036621094,
                0.40021222829818726,
                0.40517356991767883,
                0.41145798563957214,
                0.42057788372039795,
                0.42860221862792969,
                0.43508017063140869,
                0.44075614213943481,
                0.44692009687423706,
                0.45465916395187378,
                0.4587152898311615,
                0.4665488600730896,
                0.47259378433227539,
                0.48378586769104004,
                0.49581831693649292,
                0.50189787149429321,
                0.50801700353622437,
                0.51667702198028564,
                0.52316522598266602,
                0.5310823917388916,
                0.53705203533172607,
                0.54308903217315674,
                0.54946494102478027,
                0.55494046211242676,
                0.56827443838119507,
                0.57304918766021729,
                0.5822148323059082,
                0.58858489990234375,
                0.59480786323547363,
                0.60860121250152588,
                0.61554032564163208,
                0.62889784574508667,
                0.63630193471908569,
                0.64305388927459717,
                0.65009224414825439,
                0.65582716464996338,
                0.66274851560592651,
                0.66731590032577515,
                0.67742615938186646,
                0.68404197692871094,
                0.68999260663986206,
                0.69561398029327393,
                0.70718246698379517,
                0.71378278732299805,
                0.7224045991897583,
                0.72919011116027832,
                0.73780429363250732,
                0.74369800090789795,
                0.75273382663726807,
                0.75933742523193359,
                0.76489436626434326,
                0.77202093601226807,
                0.78144413232803345,
                0.78656148910522461,
                0.79221469163894653,
                0.79943060874938965,
                0.81366956233978271,
                0.82184755802154541,
                0.82929956912994385,
                0.83435434103012085,
                0.84165489673614502,
                0.84872949123382568,
                0.85607379674911499,
                0.8624725341796875,
                0.86913877725601196,
                0.87634974718093872,
                0.88463139533996582,
                0.89222002029418945,
                0.89835500717163086,
                0.90301501750946045,
                0.91226834058761597,
                0.91878348588943481,
                0.93319070339202881,
                0.94023275375366211,
                0.94741177558898926,
                0.95393824577331543,
                0.96132934093475342,
                0.97004115581512451,
                0.97766685485839844,
                0.98382836580276489,
                0.99044978618621826,
                0.99899232387542725,
                1.0142570734024048,
                1.0213264226913452,
                1.0293395519256592,
                1.0349094867706299,
                1.040184497833252,
                1.0470600128173828,
                1.0524077415466309,
                1.0585446357727051,
                1.0672729015350342,
                1.074960470199585,
                1.0820245742797852,
                1.0868949890136719,
                1.0919439792633057,
                1.0978672504425049,
                1.1098364591598511,
                1.1169184446334839,
                1.1244411468505859,
                1.1331726312637329,
                1.1516417264938354,
                1.1584017276763916,
                1.1738185882568359,
                1.1811008453369141,
                1.1863217353820801,
                1.1942192316055298,
                1.2021059989929199,
                1.2067480087280273,
                1.2137751579284668,
                1.2195591926574707,
                1.2331175804138184,
                1.245076060295105,
                1.2534945011138916,
                1.2604638338088989,
                1.2656679153442383,
                1.273543119430542,
                1.2782931327819824,
                1.2883090972900391,
                1.295811653137207,
                1.3163323402404785,
                1.3235111236572266,
                1.3284869194030762,
                1.3388559818267822,
                1.346346378326416,
                1.3543823957443237,
                1.3613249063491821,
                1.3661437034606934,
                1.3714108467102051,
                1.3787467479705811,
                1.3847892284393311,
                1.3902328014373779,
                1.405337929725647,
                1.4140093326568604,
                1.4208738803863525,
                1.4316012859344482,
                1.4393134117126465,
                1.443766713142395,
                1.4498317241668701,
                1.4551857709884644,
                1.4625411033630371,
                1.4708219766616821,
                1.4778859615325928,
                1.4864143133163452,
                1.4955852031707764,
                1.5103646516799927,
                1.5178306102752686,
                1.5238304138183594,
                1.5308036804199219,
                1.5374060869216919,
                1.5437835454940796,
                1.5517792701721191,
                1.5612509250640869,
                1.5662896633148193,
                1.5705671310424805,
                1.5793871879577637,
                1.5846110582351685,
                1.5979785919189453,
                1.6046431064605713,
                1.6092953681945801,
                1.616518497467041,
                1.6236510276794434,
                1.6350799798965454,
                1.6533205509185791,
                1.674383282661438,
                1.6818227767944336,
                1.6887837648391724,
                1.6961215734481812,
                1.7020347118377686,
                1.7062788009643555,
                1.7138433456420898,
                1.7249152660369873,
                1.7325736284255981,
                1.7392251491546631,
                1.746540904045105,
                1.7536137104034424,
                1.7606457471847534,
                1.7675819396972656,
                1.7785135507583618,
                1.7855808734893799,
                1.7930747270584106,
                1.7982944250106812,
                1.8038239479064941,
                1.8254842758178711,
                1.8414877653121948,
                1.8523914813995361,
                1.8794000148773193,
                1.9415124654769897,
                1.9497418403625488,
                1.9678213596343994,
                1.973481297492981,
                1.9809165000915527,
                1.9942042827606201
              ],
            "feature_id":"TimeToExpiry",
            "feature_index":3,
            "flat_feature_index":3,
            "has_nans":false,
            "nan_value_treatment":"AsIs"
          },
          {
            "borders":
              [
                2.0546154975891113,
                2.0691380500793457,
                2.2371439933776855,
                2.3709168434143066,
                2.3857336044311523,
                2.3990893363952637,
                2.4099361896514893,
                2.525954008102417,
                2.5430994033813477,
                2.5590415000915527,
                2.6505053043365479,
                2.6694173812866211,
                2.6835594177246094,
                2.7622115612030029,
                2.7758252620697021,
                2.8225588798522949,
                2.8362116813659668,
                2.8698368072509766,
                2.8832449913024902,
                2.9104387760162354,
                2.9265799522399902,
                2.9458003044128418,
                2.9772953987121582,
                3.0059130191802979,
                3.1177306175231934,
                3.1397886276245117,
                3.1594173908233643,
                3.1768808364868164,
                3.2071874141693115,
                3.2540819644927979,
                3.3080892562866211,
                3.324927806854248,
                3.342435359954834,
                3.3589110374450684,
                3.3723824024200439,
                3.3887104988098145,
                3.428598165512085,
                3.4599061012268066,
                3.4930698871612549,
                3.5049567222595215,
                3.5247645378112793,
                3.5408792495727539,
                3.6064257621765137,
                3.6371254920959473,
                3.6894841194152832,
                3.7255997657775879,
                3.7383842468261719,
                3.7547929286956787,
                3.8137302398681641,
                3.8578307628631592,
                3.8904612064361572,
                3.9531152248382568,
                3.9733552932739258,
                3.9877893924713135,
                4.0072011947631836,
                4.038032054901123,
                4.053828239440918,
                4.0655021667480469,
                4.0806064605712891,
                4.1480398178100586,
                4.1776304244995117,
                4.2403955459594727,
                4.2561740875244141,
                4.2733888626098633,
                4.3293547630310059,
                4.3461227416992188,
                4.3616328239440918,
                4.3893537521362305,
                4.4735631942749023,
                4.4883804321289063,
                4.5056943893432617,
                4.6010990142822266,
                4.6473512649536133,
                4.6761908531188965,
                4.6926021575927734,
                4.7055873870849609,
                4.7196459770202637,
                4.7363128662109375,
                4.7500743865966797,
                4.7779569625854492,
                4.7943496704101563,
                4.8754611015319824,
                5.0892701148986816,
                5.1088476181030273,
                5.1605424880981445,
                5.2018804550170898,
                5.2193160057067871,
                5.2523155212402344,
                5.2659702301025391,
                5.3092460632324219,
                5.4051322937011719,
                5.4542837142944336,
                5.4724912643432617,
                5.5283932685852051,
                5.5564298629760742,
                5.5880947113037109,
                5.5986557006835938,
                5.6268110275268555,
                5.6679859161376953,
                5.701439380645752,
                5.7634859085083008,
                5.7790708541870117,
                5.8332066535949707,
                5.859898567199707,
                5.8960838317871094,
                5.9714555740356445,
                5.9858856201171875
              ],
            "feature_id":"RiskfreeRate",
            "feature_index":4,
            "flat_feature_index":4,
            "has_nans":false,
            "nan_value_treatment":"AsIs"
          },
          {
            "borders":
              [
                1.1015160083770752,
                1.45497727394104,
                1.8524996042251587,
                4.2048473358154297,
                4.7488164901733398,
                5.1600422859191895,
                5.9150047302246094,
                6.3021669387817383,
                6.6102681159973145,
                7.6258773803710938,
                8.139739990234375,
                9.0953311920166016,
                9.432499885559082,
                9.7544794082641602,
                10.066917419433594,
                10.422962188720703,
                10.770607948303223,
                11.206768035888672,
                12.032183647155762,
                12.514455795288086,
                12.878021240234375,
                13.26910400390625,
                13.506624221801758,
                14.182062149047852,
                14.558449745178223,
                14.81717586517334,
                15.274289131164551,
                15.563884735107422,
                15.886867523193359,
                16.269689559936523,
                16.603227615356445,
                16.956153869628906,
                17.386447906494141,
                17.780794143676758,
                18.212741851806641,
                18.531978607177734,
                18.908058166503906,
                19.351596832275391,
                19.876470565795898,
                20.248611450195313,
                20.684360504150391,
                21.023799896240234,
                21.582284927368164,
                21.903854370117188,
                22.236461639404297,
                22.536472320556641,
                22.988243103027344,
                23.383331298828125,
                23.892387390136719,
                24.233516693115234,
                24.730072021484375,
                25.058254241943359,
                25.679512023925781,
                26.193965911865234,
                26.599174499511719,
                26.890342712402344,
                27.590446472167969,
                27.934062957763672,
                28.170890808105469,
                28.484363555908203,
                28.961040496826172,
                29.272174835205078,
                29.592830657958984,
                29.956245422363281,
                30.203777313232422,
                30.530738830566406,
                30.990301132202148,
                31.307710647583008,
                31.655998229980469,
                32.632148742675781,
                32.964405059814453,
                33.289947509765625,
                33.801162719726563,
                34.242485046386719,
                34.645210266113281,
                35.011070251464844,
                35.408470153808594,
                35.832260131835938,
                36.173820495605469,
                36.432586669921875,
                36.735912322998047,
                37.243721008300781,
                37.980766296386719,
                38.342575073242188,
                38.723697662353516,
                38.983551025390625,
                39.380584716796875,
                39.768417358398438,
                40.178367614746094,
                40.539138793945313,
                40.9761962890625,
                41.469902038574219,
                41.966861724853516,
                42.323265075683594,
                43.045379638671875,
                43.317630767822266,
                44.033592224121094,
                44.486953735351563,
                45.398048400878906,
                45.753936767578125,
                46.265220642089844,
                46.500850677490234,
                46.824302673339844,
                47.158943176269531,
                47.56976318359375,
                47.892127990722656,
                48.381332397460938,
                48.813995361328125,
                49.643413543701172,
                50.100227355957031,
                50.507984161376953,
                50.842857360839844,
                51.072494506835938,
                51.496128082275391,
                51.923778533935547,
                52.345855712890625,
                52.682086944580078,
                53.123622894287109,
                53.566604614257813,
                53.936405181884766,
                54.260749816894531,
                54.688682556152344,
                55.220592498779297,
                55.567375183105469,
                55.917388916015625,
                56.259933471679688,
                56.742958068847656,
                57.163600921630859,
                57.531181335449219,
                57.906669616699219,
                58.257827758789063,
                58.659942626953125,
                59.05596923828125,
                59.565437316894531,
                59.924812316894531,
                60.302696228027344,
                60.659584045410156,
                61.02838134765625,
                61.418106079101563,
                62.059722900390625,
                62.93218994140625,
                63.338836669921875,
                63.692726135253906,
                64.105758666992188,
                64.499282836914063,
                65.04644775390625,
                65.457046508789063,
                65.822982788085938,
                66.2423095703125,
                66.6827392578125,
                67.124526977539063,
                67.5382080078125,
                67.87335205078125,
                68.254051208496094,
                68.618804931640625,
                69.430870056152344,
                69.76361083984375,
                70.113143920898438,
                70.67138671875,
                71.146347045898438,
                71.616775512695313,
                71.969635009765625,
                72.296180725097656,
                72.823394775390625,
                73.280181884765625,
                73.684074401855469,
                74.027320861816406,
                74.840278625488281,
                75.673065185546875,
                76.082801818847656,
                76.313285827636719,
                76.679473876953125,
                77.043342590332031,
                77.414443969726563,
                77.712875366210938,
                78.040573120117188,
                78.541435241699219,
                78.870269775390625,
                79.42877197265625,
                80.577865600585938,
                81.045944213867188,
                81.859634399414063,
                82.231796264648438,
                82.535301208496094,
                82.914588928222656,
                83.224960327148438,
                83.704208374023438,
                84.122314453125,
                84.8616943359375,
                85.456802368164063,
                86.140853881835938,
                86.995559692382813,
                87.280929565429688,
                88.035430908203125,
                88.4180908203125,
                88.756210327148438,
                89.272537231445313,
                89.650390625,
                90.61529541015625,
                90.912551879882813,
                91.221389770507813,
                91.666656494140625,
                92.07818603515625,
                92.470863342285156,
                92.946022033691406,
                93.265792846679688,
                93.78326416015625,
                94.242385864257813,
                94.720588684082031,
                95.079238891601563,
                95.484901428222656,
                95.945343017578125,
                96.384841918945313,
                96.662490844726563,
                97.235809326171875,
                98.010818481445313,
                98.496368408203125,
                98.926063537597656,
                99.240852355957031
              ],
            "feature_id":"MarketFearIndex",
            "feature_index":5,
            "flat_feature_index":5,
            "has_nans":false,
            "nan_value_treatment":"AsIs"
          },
          {
            "borders":
              [
                0.28527152538299561,
                0.31730946898460388,
                0.33339989185333252,
                0.35014605522155762,
                0.37980562448501587,
                0.3951411247253418,
                0.41162022948265076,
                0.42796018719673157,
                0.44138020277023315,
                0.45352789759635925,
                0.46718019247055054,
                0.48143434524536133,
                0.500843346118927,
                0.51732063293457031,
                0.53424328565597534,
                0.55117595195770264,
                0.56778448820114136,
                0.58054697513580322,
                0.59589695930480957,
                0.61068373918533325,
                0.62268584966659546,
                0.6371350884437561,
                0.65176093578338623,
                0.67396247386932373,
                0.69109815359115601,
                0.72394084930419922,
                0.73598247766494751,
                0.75556755065917969,
                0.76902621984481812,
                0.78134596347808838,
                0.79126358032226563,
                0.80982720851898193,
                0.83317124843597412,
                0.84661757946014404,
                0.86146992444992065,
                0.88348281383514404,
                0.8978649377822876,
                0.91119730472564697,
                0.92544019222259521,
                0.9378587007522583,
                0.95221602916717529,
                0.96633255481719971,
                0.98287636041641235,
                0.99516028165817261,
                1.0087316036224365,
                1.0344207286834717,
                1.052348256111145,
                1.067023754119873,
                1.0824487209320068,
                1.1116046905517578,
                1.1245399713516235,
                1.1380555629730225,
                1.1502377986907959,
                1.1697190999984741,
                1.1827073097229004,
                1.197844386100769,
                1.2139811515808105,
                1.2257089614868164,
                1.2447988986968994,
                1.2624235153198242,
                1.2776219844818115,
                1.2976106405258179,
                1.3140271902084351,
                1.3263983726501465,
                1.3382714986801147,
                1.3535430431365967,
                1.3726062774658203,
                1.3891773223876953,
                1.4024069309234619,
                1.4151556491851807,
                1.4323117733001709,
                1.4443721771240234,
                1.460557222366333,
                1.4732662439346313,
                1.5074443817138672,
                1.5203413963317871,
                1.53501296043396,
                1.5494935512542725,
                1.556678295135498,
                1.5728557109832764,
                1.5857639312744141,
                1.6010901927947998,
                1.6145787239074707,
                1.6311295032501221,
                1.6574990749359131,
                1.6694591045379639,
                1.6845425367355347,
                1.697373628616333,
                1.7133989334106445,
                1.7253507375717163,
                1.7444443702697754,
                1.7590100765228271,
                1.7868876457214355,
                1.7985739707946777,
                1.8176231384277344,
                1.8341439962387085,
                1.8476312160491943,
                1.8590096235275269,
                1.8764865398406982,
                1.8878264427185059,
                1.922227144241333,
                1.9368970394134521,
                1.9534564018249512,
                1.9657261371612549,
                2.0160927772521973,
                2.0296401977539063,
                2.0447003841400146,
                2.0666851997375488,
                2.0801353454589844,
                2.0918078422546387,
                2.1042442321777344,
                2.1170763969421387,
                2.1335248947143555,
                2.1492478847503662,
                2.1655130386352539,
                2.1960389614105225,
                2.207766056060791,
                2.2188520431518555,
                2.2554206848144531,
                2.2862634658813477,
                2.3004193305969238,
                2.3188004493713379,
                2.3347043991088867,
                2.3587150573730469,
                2.3743395805358887,
                2.3922364711761475,
                2.4058947563171387,
                2.421633243560791,
                2.4444537162780762,
                2.4559516906738281,
                2.4855685234069824,
                2.5351710319519043,
                2.5516796112060547,
                2.5660061836242676,
                2.5766241550445557,
                2.5902163982391357,
                2.6018917560577393,
                2.6127047538757324,
                2.6296248435974121,
                2.645099401473999,
                2.6782245635986328,
                2.6976733207702637,
                2.708280086517334,
                2.7322499752044678,
                2.7413997650146484,
                2.7571887969970703,
                2.7830784320831299,
                2.8138375282287598,
                2.8370332717895508,
                2.8710277080535889,
                2.8828308582305908,
                2.9028429985046387,
                2.917201042175293,
                2.9346895217895508,
                2.9484221935272217,
                2.9635312557220459,
                2.9802956581115723,
                2.9927120208740234,
                3.0074496269226074,
                3.0202114582061768,
                3.0322151184082031,
                3.0524911880493164,
                3.0643024444580078,
                3.0783059597015381,
                3.0920581817626953,
                3.1059961318969727,
                3.1199097633361816,
                3.1404376029968262,
                3.1763608455657959,
                3.2111263275146484,
                3.2560944557189941,
                3.2710046768188477,
                3.288179874420166,
                3.3014321327209473,
                3.3132352828979492,
                3.3261787891387939,
                3.3432202339172363,
                3.3593869209289551,
                3.3688814640045166,
                3.3803055286407471,
                3.3979778289794922,
                3.4079153537750244,
                3.4300947189331055,
                3.445171594619751,
                3.4579172134399414,
                3.4707820415496826,
                3.4880425930023193,
                3.5022895336151123,
                3.5130786895751953,
                3.5396428108215332,
                3.554668664932251,
                3.5672392845153809,
                3.5815634727478027,
                3.5972537994384766,
                3.6228899955749512,
                3.673245906829834,
                3.7014479637145996,
                3.726238489151001,
                3.7401351928710938,
                3.7667496204376221,
                3.7854084968566895,
                3.83184814453125,
                3.8478152751922607,
                3.858769416809082,
                3.8906750679016113,
                3.9006049633026123,
                3.9856922626495361
              ],
            "feature_id":"BuySellRatio",
            "feature_index":6,
            "flat_feature_index":6,
            "has_nans":false,
            "nan_value_treatment":"AsIs"
          }
        ]
    },
  "model_info":
    {
      "catboost_version_info":"Git info:\n    Commit: f903943a8cd903a117c3d3c8421cc72d3910562c\n    Branch: tags/v1.2.7\n    Author: akhropov <akhropov@yandex-team.com>\n    Summary: CatBoost Release 1.2.7. e8fed88cb7baa390f4cfb62bcb925f84a3f073a7\n    git-svn info:\n    Last Changed Rev: 9293085\n\nOther info:\n    Build by: Unknown user\n    Top src dir: /src/catboost\n",
      "model_guid":"eb0d9c2f-9c72bf35-5a447111-832277c2",
      "output_options":"{\"name\":\"experiment\",\"verbose\":100,\"test_error_log\":\"test_error.tsv\",\"json_log\":\"catboost_training.json\",\"result_model_file\":\"model\",\"roc_file\":\"\",\"eval_file_name\":\"\",\"use_best_model\":false,\"allow_writing_files\":true,\"prediction_type\":[\"RawFormulaVal\"],\"fstr_internal_file\":\"\",\"output_columns\":[\"SampleId\",\"RawFormulaVal\",\"Label\"],\"snapshot_interval\":600,\"time_left_log\":\"time_left.tsv\",\"fstr_type\":\"FeatureImportance\",\"profile_log\":\"catboost_profile.log\",\"train_dir\":\"catboost_info\",\"learn_error_log\":\"learn_error.tsv\",\"training_options_file\":\"\",\"snapshot_file\":\"experiment.cbsnapshot\",\"save_snapshot\":false,\"model_format\":[\"CatboostBinary\"],\"final_feature_calcer_computation_mode\":\"Default\",\"metric_period\":1,\"output_borders\":\"\",\"final_ctr_computation_mode\":\"Default\",\"best_model_min_trees\":1,\"fstr_regular_file\":\"\"}",
      "params":
        {
          "boosting_options":
            {
              "approx_on_full_history":false,
              "boost_from_average":true,
              "boosting_type":"Plain",
              "fold_len_multiplier":2,
              "fold_permutation_block":0,
              "iterations":1000,
              "learning_rate":0.02500000037252903,
              "model_shrink_mode":"Constant",
              "model_shrink_rate":0,
              "od_config":
                {
                  "stop_pvalue":0,
                  "type":"None",
                  "wait_iterations":20
                },
              "permutation_count":4,
              "posterior_sampling":false
            },
          "cat_feature_params":
            {
              "combinations_ctrs":
                [
                  {
                    "ctr_binarization":
                      {
                        "border_count":15,
                        "border_type":"Uniform"
                      },
                    "ctr_type":"Borders",
                    "prior_estimation":"No",
                    "priors":
                      [
                        [
                          0,
                          1
                        ],
                        [
                          0.5,
                          1
                        ],
                        [
                          1,
                          1
                        ]
                      ],
                    "target_binarization":
                      {
                        "border_count":1,
                        "border_type":"MinEntropy"
                      }
                  },
                  {
                    "ctr_binarization":
                      {
                        "border_count":15,
                        "border_type":"Uniform"
                      },
                    "ctr_type":"Counter",
                    "prior_estimation":"No",
                    "priors":
                      [
                        [
                          0,
                          1
                        ]
                      ]
                  }
                ],
              "counter_calc_method":"SkipTest",
              "ctr_leaf_count_limit":18446744073709551615,
              "max_ctr_complexity":4,
              "one_hot_max_size":2,
              "per_feature_ctrs":
                {
                },
              "simple_ctrs":
                [
                  {
                    "ctr_binarization":
                      {
                        "border_count":15,
                        "border_type":"Uniform"
                      },
                    "ctr_type":"Borders",
                    "prior_estimation":"No",
                    "priors":
                      [
                        [
                          0,
                          1
                        ],
                        [
                          0.5,
                          1
                        ],
                        [
                          1,
                          1
                        ]
                      ],
                    "target_binarization":
                      {
                        "border_count":1,
                        "border_type":"MinEntropy"
                      }
                  },
                  {
                    "ctr_binarization":
                      {
                        "border_count":15,
                        "border_type":"Uniform"
                      },
                    "ctr_type":"Counter",
                    "prior_estimation":"No",
                    "priors":
                      [
                        [
                          0,
                          1
                        ]
                      ]
                  }
                ],
              "store_all_simple_ctr":false,
              "target_binarization":
                {
                  "border_count":1,
                  "border_type":"MinEntropy"
                }
            },
          "data_processing_options":
            {
              "allow_const_label":false,
              "auto_class_weights":"None",
              "class_names":
                [
                ],
              "class_weights":
                [
                ],
              "classes_count":0,
              "dev_default_value_fraction_for_sparse":0.82999998331069946,
              "dev_group_features":false,
              "dev_leafwise_scoring":false,
              "dev_sparse_array_indexing":"Indices",
              "embedding_processing_options":
                {
                  "embedding_processing":
                    {
                      "default":
                        [
                          "LDA",
                          "KNN"
                        ]
                    }
                },
              "eval_fraction":0,
              "float_features_binarization":
                {
                  "border_count":254,
                  "border_type":"GreedyLogSum",
                  "dev_max_subset_size_for_build_borders":200000,
                  "nan_mode":"Min"
                },
              "force_unit_auto_pair_weights":false,
              "has_time":false,
              "ignored_features":
                [
                ],
              "per_float_feature_quantization":
                {
                },
              "target_border":null,
              "text_processing_options":
                {
                  "dictionaries":
                    [
                      {
                        "dictionary_id":"BiGram",
                        "end_of_sentence_token_policy":"Skip",
                        "end_of_word_token_policy":"Insert",
                        "gram_order":"2",
                        "max_dictionary_size":"50000",
                        "occurrence_lower_bound":"5",
                        "skip_step":"0",
                        "start_token_id":"0",
                        "token_level_type":"Word"
                      },
                      {
                        "dictionary_id":"Word",
                        "end_of_sentence_token_policy":"Skip",
                        "end_of_word_token_policy":"Insert",
                        "gram_order":"1",
                        "max_dictionary_size":"50000",
                        "occurrence_lower_bound":"5",
                        "skip_step":"0",
                        "start_token_id":"0",
                        "token_level_type":"Word"
                      }
                    ],
                  "feature_processing":
                    {
                      "default":
                        [
                          {
                            "dictionaries_names":
                              [
                                "BiGram",
                                "Word"
                              ],
                            "feature_calcers":
                              [
                                "BoW"
                              ],
                            "tokenizers_names":
                              [
                                "Space"
                              ]
                          }
                        ]
                    },
                  "tokenizers":
                    [
                      {
                        "delimiter":" ",
                        "languages":
                          [
                          ],
                        "lemmatizing":"0",
                        "lowercasing":"0",
                        "number_process_policy":"LeaveAsIs",
                        "number_token":"🔢",
                        "separator_type":"ByDelimiter",
                        "skip_empty":"1",
                        "split_by_set":"0",
                        "subtokens_policy":"SingleToken",
                        "token_types":
                          [
                            "Number",
                            "Unknown",
                            "Word"
                          ],
                        "tokenizer_id":"Space"
                      }
                    ]
                }
            },
          "detailed_profile":false,
          "flat_params":
            {
              "depth":6,
              "iterations":1000,
              "learning_rate":0.025000000000000001,
              "loss_function":"RMSE",
              "verbose":100
            },
          "logging_level":"Verbose",
          "loss_function":
            {
              "params":
                {
                },
              "type":"RMSE"
            },
          "metadata":
            {
            },
          "metrics":
            {
              "custom_metrics":
                [
                ],
              "eval_metric":
                {
                  "params":
                    {
                    },
                  "type":"RMSE"
                },
              "objective_metric":
                {
                  "params":
                    {
                    },
                  "type":"RMSE"
                }
            },
          "pool_metainfo_options":
            {
              "tags":
                {
                }
            },
          "random_seed":0,
          "system_options":
            {
              "file_with_hosts":"hosts.txt",
              "node_port":0,
              "node_type":"SingleHost",
              "thread_count":8,
              "used_ram_limit":""
            },
          "task_type":"CPU",
          "tree_learner_options":
            {
              "bayesian_matrix_reg":0.10000000149011612,
              "bootstrap":
                {
                  "mvs_reg":null,
                  "subsample":0.80000001192092896,
                  "type":"MVS"
                },
              "depth":6,
              "dev_efb_max_buckets":1024,
              "dev_leafwise_approxes":false,
              "dev_score_calc_obj_block_size":5000000,
              "grow_policy":"SymmetricTree",
              "l2_leaf_reg":3,
              "leaf_estimation_backtracking":"AnyImprovement",
              "leaf_estimation_iterations":1,
              "leaf_estimation_method":"Newton",
              "max_leaves":64,
              "min_data_in_leaf":1,
              "model_size_reg":0.5,
              "monotone_constraints":
                {
                },
              "penalties":
                {
                  "feature_weights":
                    {
                    },
                  "first_feature_use_penalties":
                    {
                    },
                  "penalties_coefficient":1,
                  "per_object_feature_penalties":
                    {
                    }
                },
              "random_score_type":"NormalWithModelSizeDecrease",
              "random_strength":1,
              "rsm":1,
              "sampling_frequency":"PerTree",
              "score_function":"Cosine",
              "sparse_features_conflict_fraction":0
            }
        },
      "train_finish_time":"2024-09-28T19:20:44Z",
      "training":"{\"metrics\":{\"learn_best_error\":{\"RMSE\":0.8652530606870541},\"test_metrics_history\":[],\"learn_metrics_history\":[{\"RMSE\":22.627897628167386},{\"RMSE\":22.166418826755447},{\"RMSE\":21.75757975660636},{\"RMSE\":21.33519679929923},{\"RMSE\":20.91689532226766},{\"RMSE\":20.49657457488854},{\"RMSE\":20.103013075803926},{\"RMSE\":19.696721760727968},{\"RMSE\":19.309662405596203},{\"RMSE\":18.9409581983269},{\"RMSE\":18.591788442775474},{\"RMSE\":18.282147579771436},{\"RMSE\":17.9320922465953},{\"RMSE\":17.578316713512404},{\"RMSE\":17.236081457907407},{\"RMSE\":16.913947494284763},{\"RMSE\":16.58482882451761},{\"RMSE\":16.270973637072597},{\"RMSE\":15.969398422409279},{\"RMSE\":15.684579131129246},{\"RMSE\":15.380785748925447},{\"RMSE\":15.090012409825487},{\"RMSE\":14.852785557266074},{\"RMSE\":14.610878692731886},{\"RMSE\":14.379108000860537},{\"RMSE\":14.133185194129831},{\"RMSE\":13.861774634470942},{\"RMSE\":13.653252727295541},{\"RMSE\":13.414730791313678},{\"RMSE\":13.175828074343977},{\"RMSE\":12.936916574082693},{\"RMSE\":12.698985345061299},{\"RMSE\":12.465494500723613},{\"RMSE\":12.259379021011735},{\"RMSE\":12.04232689480099},{\"RMSE\":11.902510676314977},{\"RMSE\":11.745788138502306},{\"RMSE\":11.553248901388622},{\"RMSE\":11.410830471513215},{\"RMSE\":11.247285622294664},{\"RMSE\":11.082208046092463},{\"RMSE\":10.91506446448099},{\"RMSE\":10.847887491472898},{\"RMSE\":10.682556373081802},{\"RMSE\":10.497687075359236},{\"RMSE\":10.380021821988832},{\"RMSE\":10.268690345689294},{\"RMSE\":10.126332288996744},{\"RMSE\":9.959126867891841},{\"RMSE\":9.847993795497127},{\"RMSE\":9.697908517824413},{\"RMSE\":9.561109561451497},{\"RMSE\":9.461842541765654},{\"RMSE\":9.362322493220411},{\"RMSE\":9.211861743519105},{\"RMSE\":9.080551265871767},{\"RMSE\":8.936826683010818},{\"RMSE\":8.791268462169043},{\"RMSE\":8.652557597502508},{\"RMSE\":8.528617776937494},{\"RMSE\":8.387838440918937},{\"RMSE\":8.255146397648701},{\"RMSE\":8.182320926202587},{\"RMSE\":8.144349672823713},{\"RMSE\":8.036284383502668},{\"RMSE\":7.920725468974246},{\"RMSE\":7.821011755115621},{\"RMSE\":7.781058561009947},{\"RMSE\":7.744347146893262},{\"RMSE\":7.618460088351612},{\"RMSE\":7.582705951061032},{\"RMSE\":7.464974619752455},{\"RMSE\":7.35107793975251},{\"RMSE\":7.272387508700468},{\"RMSE\":7.210038687040755},{\"RMSE\":7.114993991701991},{\"RMSE\":7.018318910392122},{\"RMSE\":6.914776491349046},{\"RMSE\":6.825117887540285},{\"RMSE\":6.727214549018968},{\"RMSE\":6.623545520527145},{\"RMSE\":6.539019231850405},{\"RMSE\":6.486549174995853},{\"RMSE\":6.3931128332897345},{\"RMSE\":6.341646988694615},{\"RMSE\":6.282228628835594},{\"RMSE\":6.192433122735557},{\"RMSE\":6.124537981856566},{\"RMSE\":6.040084873372909},{\"RMSE\":5.984354220884885},{\"RMSE\":5.901876998870096},{\"RMSE\":5.8227431191860735},{\"RMSE\":5.7519849966644205},{\"RMSE\":5.691626874989043},{\"RMSE\":5.614315914112505},{\"RMSE\":5.554307875605193},{\"RMSE\":5.490174313463481},{\"RMSE\":5.423534681335337},{\"RMSE\":5.355024304636362},{\"RMSE\":5.312599244758076},{\"RMSE\":5.2540966766935515},{\"RMSE\":5.196080821584408},{\"RMSE\":5.1400140524010025},{\"RMSE\":5.083280637546808},{\"RMSE\":5.029534059536312},{\"RMSE\":4.973702004675461},{\"RMSE\":4.9354329444709055},{\"RMSE\":4.882677214180385},{\"RMSE\":4.821622060812377},{\"RMSE\":4.781231052205685},{\"RMSE\":4.7437123783105575},{\"RMSE\":4.695402976372778},{\"RMSE\":4.636199882831707},{\"RMSE\":4.602814793804467},{\"RMSE\":4.552555801884957},{\"RMSE\":4.517276333159048},{\"RMSE\":4.46448791260717},{\"RMSE\":4.416312226854718},{\"RMSE\":4.384137058131031},{\"RMSE\":4.337724548044628},{\"RMSE\":4.300384455086171},{\"RMSE\":4.266609727100142},{\"RMSE\":4.219171005650879},{\"RMSE\":4.175181470534459},{\"RMSE\":4.157580648362674},{\"RMSE\":4.111861588167512},{\"RMSE\":4.068963900194357},{\"RMSE\":4.03838679891835},{\"RMSE\":4.009089278657484},{\"RMSE\":3.995695581804646},{\"RMSE\":3.9544585178542078},{\"RMSE\":3.9288417316425033},{\"RMSE\":3.8883629108770386},{\"RMSE\":3.8715825821011634},{\"RMSE\":3.8574836248813424},{\"RMSE\":3.818114604681718},{\"RMSE\":3.7810544074048016},{\"RMSE\":3.744481806968088},{\"RMSE\":3.710613880136334},{\"RMSE\":3.679707034670842},{\"RMSE\":3.6466403770088505},{\"RMSE\":3.63388464564226},{\"RMSE\":3.5997693899072534},{\"RMSE\":3.582523063925525},{\"RMSE\":3.5519140647609313},{\"RMSE\":3.5197441130051947},{\"RMSE\":3.4912354828495427},{\"RMSE\":3.465095736101198},{\"RMSE\":3.454656575488751},{\"RMSE\":3.4255504933653094},{\"RMSE\":3.4020923874717544},{\"RMSE\":3.3729837691045748},{\"RMSE\":3.3516205955357634},{\"RMSE\":3.325981221288333},{\"RMSE\":3.3055125621619386},{\"RMSE\":3.278136337180381},{\"RMSE\":3.254602644839148},{\"RMSE\":3.229483114223517},{\"RMSE\":3.2041312886447217},{\"RMSE\":3.178793521445719},{\"RMSE\":3.159790876404363},{\"RMSE\":3.137369392396289},{\"RMSE\":3.1159592469848394},{\"RMSE\":3.1009236261828894},{\"RMSE\":3.0837397308334675},{\"RMSE\":3.066307198708034},{\"RMSE\":3.044521663969729},{\"RMSE\":3.0291486693690275},{\"RMSE\":3.007672570921824},{\"RMSE\":2.9866418365700005},{\"RMSE\":2.9644848764918903},{\"RMSE\":2.948241884965431},{\"RMSE\":2.933545490827449},{\"RMSE\":2.915392476510614},{\"RMSE\":2.8948030206076893},{\"RMSE\":2.8800850860578855},{\"RMSE\":2.8688765093316353},{\"RMSE\":2.8580420549511363},{\"RMSE\":2.8387108291428103},{\"RMSE\":2.81923870021334},{\"RMSE\":2.803719127146855},{\"RMSE\":2.788661869784911},{\"RMSE\":2.770156701328209},{\"RMSE\":2.754049381119094},{\"RMSE\":2.7453136826418723},{\"RMSE\":2.728181286723256},{\"RMSE\":2.7083376617360853},{\"RMSE\":2.6923490579037814},{\"RMSE\":2.685602289398654},{\"RMSE\":2.6675516481752006},{\"RMSE\":2.6507283162876103},{\"RMSE\":2.635317684231562},{\"RMSE\":2.619208093395011},{\"RMSE\":2.6035963078571998},{\"RMSE\":2.589717244715185},{\"RMSE\":2.5735803221529876},{\"RMSE\":2.559562083962543},{\"RMSE\":2.543253376172921},{\"RMSE\":2.529371037425051},{\"RMSE\":2.5121890224561114},{\"RMSE\":2.503854716184444},{\"RMSE\":2.4907691711215003},{\"RMSE\":2.4769067708192662},{\"RMSE\":2.4697882862600267},{\"RMSE\":2.4567434940895545},{\"RMSE\":2.4428974874988776},{\"RMSE\":2.4305998270260964},{\"RMSE\":2.416801635887584},{\"RMSE\":2.408502305707952},{\"RMSE\":2.3961362528912966},{\"RMSE\":2.38395436155076},{\"RMSE\":2.3725826302017565},{\"RMSE\":2.3611591600502817},{\"RMSE\":2.350865944477354},{\"RMSE\":2.338919559778031},{\"RMSE\":2.3284566768220247},{\"RMSE\":2.3165219757492306},{\"RMSE\":2.306001058088138},{\"RMSE\":2.2986173833175876},{\"RMSE\":2.290248781778158},{\"RMSE\":2.2800464972484944},{\"RMSE\":2.272917293488715},{\"RMSE\":2.2611334181028186},{\"RMSE\":2.2504515726019383},{\"RMSE\":2.241895052823187},{\"RMSE\":2.229969322843465},{\"RMSE\":2.221357701185183},{\"RMSE\":2.2100423323012883},{\"RMSE\":2.2012080787297874},{\"RMSE\":2.191883787263297},{\"RMSE\":2.186505966788061},{\"RMSE\":2.1806315999018677},{\"RMSE\":2.17534803965517},{\"RMSE\":2.163349372217843},{\"RMSE\":2.156573757045849},{\"RMSE\":2.1439565104255105},{\"RMSE\":2.13617484608732},{\"RMSE\":2.1279942302504926},{\"RMSE\":2.1192619238674406},{\"RMSE\":2.110557265694447},{\"RMSE\":2.1036655675057694},{\"RMSE\":2.0991640891453787},{\"RMSE\":2.089537992355259},{\"RMSE\":2.0802983731965865},{\"RMSE\":2.0752924590899426},{\"RMSE\":2.0670363184045892},{\"RMSE\":2.0587246019478673},{\"RMSE\":2.051922577626866},{\"RMSE\":2.0428985692324364},{\"RMSE\":2.0313094835535863},{\"RMSE\":2.0253507047315233},{\"RMSE\":2.015101068945467},{\"RMSE\":2.0107107639181727},{\"RMSE\":2.0040578733723953},{\"RMSE\":1.9979829206825397},{\"RMSE\":1.9927117450732912},{\"RMSE\":1.9852829389472788},{\"RMSE\":1.9786339359155183},{\"RMSE\":1.9695759718534562},{\"RMSE\":1.96355518461039},{\"RMSE\":1.9542156207038257},{\"RMSE\":1.948251947491625},{\"RMSE\":1.9436301298127552},{\"RMSE\":1.9367339698585313},{\"RMSE\":1.9309718168760994},{\"RMSE\":1.9234570467649634},{\"RMSE\":1.9159095430841264},{\"RMSE\":1.909161260741076},{\"RMSE\":1.9033414847768577},{\"RMSE\":1.89772273629077},{\"RMSE\":1.8910598947416997},{\"RMSE\":1.883690891524223},{\"RMSE\":1.8774427490218413},{\"RMSE\":1.8683568225950307},{\"RMSE\":1.8634046287249078},{\"RMSE\":1.858348211993189},{\"RMSE\":1.8537275604700734},{\"RMSE\":1.8477482534463816},{\"RMSE\":1.844344849143219},{\"RMSE\":1.839728413406672},{\"RMSE\":1.8351750795298931},{\"RMSE\":1.8316779578460987},{\"RMSE\":1.8279042299580126},{\"RMSE\":1.822063471260618},{\"RMSE\":1.8160217857000072},{\"RMSE\":1.8116149254539726},{\"RMSE\":1.8074218526318813},{\"RMSE\":1.8027393350475986},{\"RMSE\":1.7998246092507233},{\"RMSE\":1.7971513857514665},{\"RMSE\":1.7926869923640805},{\"RMSE\":1.789328218907517},{\"RMSE\":1.7833929738017986},{\"RMSE\":1.7790609721435657},{\"RMSE\":1.7755636745941465},{\"RMSE\":1.7729098296615093},{\"RMSE\":1.769394604493298},{\"RMSE\":1.7645897020259422},{\"RMSE\":1.7553742771237058},{\"RMSE\":1.7494302701066349},{\"RMSE\":1.7469714371318812},{\"RMSE\":1.7414158129782995},{\"RMSE\":1.7363214703984895},{\"RMSE\":1.7327728335220338},{\"RMSE\":1.7251299876476671},{\"RMSE\":1.7170047210785555},{\"RMSE\":1.7136315959590225},{\"RMSE\":1.709091166021239},{\"RMSE\":1.705646276797879},{\"RMSE\":1.7030440646962721},{\"RMSE\":1.7004702417110344},{\"RMSE\":1.693286352064359},{\"RMSE\":1.6867497619002512},{\"RMSE\":1.6835784814425414},{\"RMSE\":1.6788953072345296},{\"RMSE\":1.676095938904496},{\"RMSE\":1.6734960592350228},{\"RMSE\":1.6696340982491467},{\"RMSE\":1.6664720494784964},{\"RMSE\":1.6626670122038623},{\"RMSE\":1.6595955208663309},{\"RMSE\":1.6569900675455256},{\"RMSE\":1.6554898906981363},{\"RMSE\":1.6507766866422617},{\"RMSE\":1.6471028517367445},{\"RMSE\":1.644566919631078},{\"RMSE\":1.6411966637423725},{\"RMSE\":1.6373884811718853},{\"RMSE\":1.6335730159838282},{\"RMSE\":1.63150855316778},{\"RMSE\":1.6274709526011473},{\"RMSE\":1.6242538993025963},{\"RMSE\":1.6192328002848064},{\"RMSE\":1.6134582136948405},{\"RMSE\":1.610738754095274},{\"RMSE\":1.6078022533092664},{\"RMSE\":1.602569086610446},{\"RMSE\":1.6004210714683083},{\"RMSE\":1.5960365476677285},{\"RMSE\":1.5933655151125898},{\"RMSE\":1.5893596302038984},{\"RMSE\":1.584126150289328},{\"RMSE\":1.5816644992777438},{\"RMSE\":1.5787957676063198},{\"RMSE\":1.576182004560396},{\"RMSE\":1.5708165550008177},{\"RMSE\":1.5681029005582814},{\"RMSE\":1.5653450353202087},{\"RMSE\":1.5628525575215875},{\"RMSE\":1.558857890020184},{\"RMSE\":1.5551046198153773},{\"RMSE\":1.5499387505257045},{\"RMSE\":1.5477139718255188},{\"RMSE\":1.542525956389072},{\"RMSE\":1.5404310572441904},{\"RMSE\":1.5364478839013658},{\"RMSE\":1.534320332990496},{\"RMSE\":1.5305173696762064},{\"RMSE\":1.5267099792041516},{\"RMSE\":1.524570505683531},{\"RMSE\":1.5221783600335},{\"RMSE\":1.5169015102286432},{\"RMSE\":1.5101311598267664},{\"RMSE\":1.5079167820050743},{\"RMSE\":1.5033679229886527},{\"RMSE\":1.4992923066720258},{\"RMSE\":1.4972372600076251},{\"RMSE\":1.4949571056762694},{\"RMSE\":1.492857313913776},{\"RMSE\":1.4908364405283439},{\"RMSE\":1.489311861468751},{\"RMSE\":1.4865135813602595},{\"RMSE\":1.484852378122229},{\"RMSE\":1.4804709497744362},{\"RMSE\":1.4784908025467811},{\"RMSE\":1.4725044946154484},{\"RMSE\":1.468910606001095},{\"RMSE\":1.466700554778705},{\"RMSE\":1.4653466716849375},{\"RMSE\":1.463328010299919},{\"RMSE\":1.4575651161300025},{\"RMSE\":1.4559474375713184},{\"RMSE\":1.4543015892484874},{\"RMSE\":1.452510629939148},{\"RMSE\":1.4509798803108305},{\"RMSE\":1.4486405482541032},{\"RMSE\":1.4447408571519675},{\"RMSE\":1.4437269067783784},{\"RMSE\":1.4406333425439375},{\"RMSE\":1.437279405186316},{\"RMSE\":1.435418976483903},{\"RMSE\":1.4320430983165857},{\"RMSE\":1.430210475309231},{\"RMSE\":1.428494118597233},{\"RMSE\":1.4242806356732074},{\"RMSE\":1.4224450712896686},{\"RMSE\":1.4204991001855924},{\"RMSE\":1.4159533506201227},{\"RMSE\":1.4104890937212318},{\"RMSE\":1.4076646424198374},{\"RMSE\":1.403644841403617},{\"RMSE\":1.4021308473715426},{\"RMSE\":1.4004719829659298},{\"RMSE\":1.396799788140755},{\"RMSE\":1.3953763803449766},{\"RMSE\":1.3932985571249086},{\"RMSE\":1.3909439105573136},{\"RMSE\":1.3886260529824064},{\"RMSE\":1.3872965042489835},{\"RMSE\":1.3844665418857813},{\"RMSE\":1.3810649528998333},{\"RMSE\":1.379634013049923},{\"RMSE\":1.3768641688403045},{\"RMSE\":1.3738279088933836},{\"RMSE\":1.3725020738338687},{\"RMSE\":1.37071787606193},{\"RMSE\":1.3693763944933384},{\"RMSE\":1.3671811657581663},{\"RMSE\":1.3649760430095799},{\"RMSE\":1.3624513945907613},{\"RMSE\":1.3611394172532087},{\"RMSE\":1.3583026555330242},{\"RMSE\":1.3560326951706556},{\"RMSE\":1.3533885246715758},{\"RMSE\":1.3505375702538152},{\"RMSE\":1.3485131612316439},{\"RMSE\":1.3472252590933116},{\"RMSE\":1.3446020650219856},{\"RMSE\":1.3427822155647822},{\"RMSE\":1.3390145995017062},{\"RMSE\":1.3374085837670862},{\"RMSE\":1.3351331069652665},{\"RMSE\":1.3322014724857816},{\"RMSE\":1.3309957191456483},{\"RMSE\":1.3279784372225834},{\"RMSE\":1.3263906298906651},{\"RMSE\":1.3247280941454214},{\"RMSE\":1.3229070189878722},{\"RMSE\":1.3215067575852972},{\"RMSE\":1.319208844761027},{\"RMSE\":1.3175934882066498},{\"RMSE\":1.316359685187064},{\"RMSE\":1.315213129921956},{\"RMSE\":1.3137548639394874},{\"RMSE\":1.3115770620151377},{\"RMSE\":1.310466496620802},{\"RMSE\":1.3094408507064084},{\"RMSE\":1.308510604392568},{\"RMSE\":1.3059044936187132},{\"RMSE\":1.3043606995489685},{\"RMSE\":1.3032342080472523},{\"RMSE\":1.3020643381387527},{\"RMSE\":1.2998905448484896},{\"RMSE\":1.298912246993495},{\"RMSE\":1.2956286702357631},{\"RMSE\":1.2905237043304514},{\"RMSE\":1.2891835462835939},{\"RMSE\":1.2863111558557048},{\"RMSE\":1.2846320295607359},{\"RMSE\":1.2836489970886749},{\"RMSE\":1.2819507529448433},{\"RMSE\":1.2799695855070305},{\"RMSE\":1.2778669360944306},{\"RMSE\":1.2769153504678592},{\"RMSE\":1.2757554619603777},{\"RMSE\":1.273247980569526},{\"RMSE\":1.2710426158815546},{\"RMSE\":1.2702803528203965},{\"RMSE\":1.2689542160229568},{\"RMSE\":1.2681631732871836},{\"RMSE\":1.2669842720703035},{\"RMSE\":1.2659735852937357},{\"RMSE\":1.2647740285605786},{\"RMSE\":1.2615182452033393},{\"RMSE\":1.260353559081086},{\"RMSE\":1.2582330203741403},{\"RMSE\":1.2570228991133214},{\"RMSE\":1.2545996238322035},{\"RMSE\":1.253637998705382},{\"RMSE\":1.252621313112399},{\"RMSE\":1.249066269204511},{\"RMSE\":1.2482735197026722},{\"RMSE\":1.2458617951211195},{\"RMSE\":1.2447632494986527},{\"RMSE\":1.2422805584391965},{\"RMSE\":1.241409313584968},{\"RMSE\":1.2386711012908656},{\"RMSE\":1.2374957839698513},{\"RMSE\":1.2351661918325119},{\"RMSE\":1.2340053716278312},{\"RMSE\":1.2324662226365484},{\"RMSE\":1.2281910387092598},{\"RMSE\":1.2270427374423258},{\"RMSE\":1.2259440676620186},{\"RMSE\":1.2247264539907443},{\"RMSE\":1.2211047265004442},{\"RMSE\":1.21888622310942},{\"RMSE\":1.21737890394021},{\"RMSE\":1.2159042240831497},{\"RMSE\":1.2148994607454602},{\"RMSE\":1.2142615848685585},{\"RMSE\":1.2132711207410616},{\"RMSE\":1.211301014232252},{\"RMSE\":1.2105505400861607},{\"RMSE\":1.2092065757815937},{\"RMSE\":1.2084476344963926},{\"RMSE\":1.2070709148871097},{\"RMSE\":1.2048090107641336},{\"RMSE\":1.2036444993595847},{\"RMSE\":1.2029066063199108},{\"RMSE\":1.2014854445118126},{\"RMSE\":1.2007596962938738},{\"RMSE\":1.1999432614699548},{\"RMSE\":1.198819594272241},{\"RMSE\":1.1970691449635094},{\"RMSE\":1.195273112807874},{\"RMSE\":1.1939376108985615},{\"RMSE\":1.1927857427587505},{\"RMSE\":1.1919431444173276},{\"RMSE\":1.1908178986861706},{\"RMSE\":1.187238965404079},{\"RMSE\":1.1860099567434852},{\"RMSE\":1.1850732259297798},{\"RMSE\":1.1840112329714512},{\"RMSE\":1.1830081071966323},{\"RMSE\":1.181505516509286},{\"RMSE\":1.1807965533557652},{\"RMSE\":1.1799464018503663},{\"RMSE\":1.178596040977799},{\"RMSE\":1.1779101929951814},{\"RMSE\":1.1761213786882168},{\"RMSE\":1.1755259365194832},{\"RMSE\":1.1745300110452281},{\"RMSE\":1.1728872404138884},{\"RMSE\":1.1712212278381349},{\"RMSE\":1.1702096362592753},{\"RMSE\":1.1695898285182522},{\"RMSE\":1.1687214784684563},{\"RMSE\":1.1666185216838376},{\"RMSE\":1.1659283410828043},{\"RMSE\":1.1651463692818618},{\"RMSE\":1.1642505212301686},{\"RMSE\":1.1632694793639375},{\"RMSE\":1.1626027297342532},{\"RMSE\":1.1615894326085148},{\"RMSE\":1.1607091423342994},{\"RMSE\":1.1575994357220525},{\"RMSE\":1.156530806184552},{\"RMSE\":1.155863391657805},{\"RMSE\":1.1548015594131555},{\"RMSE\":1.1539589671222443},{\"RMSE\":1.1528417418106276},{\"RMSE\":1.1511164676415129},{\"RMSE\":1.1498032787261965},{\"RMSE\":1.1482063669746039},{\"RMSE\":1.1472663258155553},{\"RMSE\":1.145464280789068},{\"RMSE\":1.1448629603250322},{\"RMSE\":1.1441102470506472},{\"RMSE\":1.1434987941237487},{\"RMSE\":1.1415707675194102},{\"RMSE\":1.140493065375312},{\"RMSE\":1.139131582051968},{\"RMSE\":1.1385289555719253},{\"RMSE\":1.1368536704761805},{\"RMSE\":1.135146433010022},{\"RMSE\":1.133792647212075},{\"RMSE\":1.1328504969001052},{\"RMSE\":1.1317707856810426},{\"RMSE\":1.1311315844586742},{\"RMSE\":1.1290847746440031},{\"RMSE\":1.1264187194929327},{\"RMSE\":1.1258280348716692},{\"RMSE\":1.1245902153942444},{\"RMSE\":1.1240121085372339},{\"RMSE\":1.1228831274655915},{\"RMSE\":1.1213218089207087},{\"RMSE\":1.1202830194927795},{\"RMSE\":1.1195921599794285},{\"RMSE\":1.118876584110994},{\"RMSE\":1.1173743467996742},{\"RMSE\":1.1149012682854496},{\"RMSE\":1.1139779713728493},{\"RMSE\":1.1131705777599825},{\"RMSE\":1.1122382016895225},{\"RMSE\":1.1110457650315726},{\"RMSE\":1.1103503270003867},{\"RMSE\":1.1098424312444553},{\"RMSE\":1.1092504294968475},{\"RMSE\":1.108321316980525},{\"RMSE\":1.1068437021846156},{\"RMSE\":1.1062279019465262},{\"RMSE\":1.105489176374482},{\"RMSE\":1.1040319940442478},{\"RMSE\":1.1035308329359905},{\"RMSE\":1.1025676891997984},{\"RMSE\":1.1015792662676653},{\"RMSE\":1.099096681787758},{\"RMSE\":1.0983605944274144},{\"RMSE\":1.0977369776130457},{\"RMSE\":1.0964391568726954},{\"RMSE\":1.095368690748159},{\"RMSE\":1.0945971247679098},{\"RMSE\":1.0928291412612128},{\"RMSE\":1.0922488496833311},{\"RMSE\":1.0915854160445164},{\"RMSE\":1.0905596873784218},{\"RMSE\":1.0899189155757525},{\"RMSE\":1.0885855898230234},{\"RMSE\":1.0872680071227636},{\"RMSE\":1.0863401875931749},{\"RMSE\":1.085497728885995},{\"RMSE\":1.0847747016272347},{\"RMSE\":1.083814999385925},{\"RMSE\":1.0828569329676494},{\"RMSE\":1.0822014106827267},{\"RMSE\":1.0808800487830246},{\"RMSE\":1.079812092865975},{\"RMSE\":1.0775036065027253},{\"RMSE\":1.0765900915195097},{\"RMSE\":1.0761774774337032},{\"RMSE\":1.0748948744449869},{\"RMSE\":1.0743879091546213},{\"RMSE\":1.0734295067078097},{\"RMSE\":1.072604527241323},{\"RMSE\":1.072085464438338},{\"RMSE\":1.070974962047663},{\"RMSE\":1.0699785461065459},{\"RMSE\":1.06879680864246},{\"RMSE\":1.0677403369959106},{\"RMSE\":1.0667096144874004},{\"RMSE\":1.065969032965508},{\"RMSE\":1.0654726212893548},{\"RMSE\":1.0644461628391484},{\"RMSE\":1.0637743362457777},{\"RMSE\":1.0632592460236427},{\"RMSE\":1.0628388133086608},{\"RMSE\":1.0623949228002005},{\"RMSE\":1.0614181787270518},{\"RMSE\":1.0606691086533273},{\"RMSE\":1.059800793522096},{\"RMSE\":1.0592854024288407},{\"RMSE\":1.0587754612398161},{\"RMSE\":1.0583568276899247},{\"RMSE\":1.0579008535308614},{\"RMSE\":1.0558152613482241},{\"RMSE\":1.053836352532609},{\"RMSE\":1.0533345340860976},{\"RMSE\":1.0528085263406026},{\"RMSE\":1.051435340349196},{\"RMSE\":1.0505989994960945},{\"RMSE\":1.049657231091365},{\"RMSE\":1.0492194226309652},{\"RMSE\":1.0485609845741304},{\"RMSE\":1.0481567423124805},{\"RMSE\":1.0463694112684268},{\"RMSE\":1.0454332788989595},{\"RMSE\":1.0448280198683166},{\"RMSE\":1.0440339515190973},{\"RMSE\":1.042959548980796},{\"RMSE\":1.0419083975834877},{\"RMSE\":1.0412220199742341},{\"RMSE\":1.0405590934579965},{\"RMSE\":1.0394174460652068},{\"RMSE\":1.038986155245449},{\"RMSE\":1.0377854034070928},{\"RMSE\":1.037204867505754},{\"RMSE\":1.036252469793248},{\"RMSE\":1.035155323931918},{\"RMSE\":1.034339040372469},{\"RMSE\":1.0338438761551154},{\"RMSE\":1.0326384911709727},{\"RMSE\":1.032078742963388},{\"RMSE\":1.0311572510290434},{\"RMSE\":1.0305400064768444},{\"RMSE\":1.02988616366378},{\"RMSE\":1.0290804910848146},{\"RMSE\":1.0280416882130503},{\"RMSE\":1.0275142113828233},{\"RMSE\":1.0272075195465635},{\"RMSE\":1.0261351716008922},{\"RMSE\":1.0255236756436692},{\"RMSE\":1.0248477606835433},{\"RMSE\":1.0244037082674777},{\"RMSE\":1.023712764296065},{\"RMSE\":1.0230859595674406},{\"RMSE\":1.0224738137200489},{\"RMSE\":1.0218411518548214},{\"RMSE\":1.0210334843549254},{\"RMSE\":1.0204322127859509},{\"RMSE\":1.0196746786329232},{\"RMSE\":1.019165883224125},{\"RMSE\":1.0181089786810835},{\"RMSE\":1.0175392546565016},{\"RMSE\":1.0165542141781407},{\"RMSE\":1.016014876118958},{\"RMSE\":1.0156144986107096},{\"RMSE\":1.013999563773718},{\"RMSE\":1.0127023811585154},{\"RMSE\":1.011918244168501},{\"RMSE\":1.0113678829116457},{\"RMSE\":1.010329144251192},{\"RMSE\":1.0096991045453836},{\"RMSE\":1.0089066670369968},{\"RMSE\":1.0081306719895773},{\"RMSE\":1.007442064704129},{\"RMSE\":1.0066604432230972},{\"RMSE\":1.0056518089857367},{\"RMSE\":1.005062196500941},{\"RMSE\":1.0042562939325497},{\"RMSE\":1.0037841361174487},{\"RMSE\":1.0035221641352279},{\"RMSE\":1.002908141471651},{\"RMSE\":1.0023013623752082},{\"RMSE\":1.0015619176980903},{\"RMSE\":1.0004993495541399},{\"RMSE\":1.000018895393328},{\"RMSE\":0.9996210752326704},{\"RMSE\":0.9987053084136681},{\"RMSE\":0.998123055238032},{\"RMSE\":0.9975865898408345},{\"RMSE\":0.9961745753990733},{\"RMSE\":0.9955037189312269},{\"RMSE\":0.9947371837042264},{\"RMSE\":0.9942361021379506},{\"RMSE\":0.9939406155562034},{\"RMSE\":0.9926635209416028},{\"RMSE\":0.9921028578805494},{\"RMSE\":0.9918240940861782},{\"RMSE\":0.991301781700686},{\"RMSE\":0.9908729284426849},{\"RMSE\":0.9904061219966013},{\"RMSE\":0.9891346897952045},{\"RMSE\":0.9887055359411056},{\"RMSE\":0.9882940949558255},{\"RMSE\":0.9874314227615801},{\"RMSE\":0.9868250691249573},{\"RMSE\":0.9855949777916373},{\"RMSE\":0.9848423457827925},{\"RMSE\":0.9844596030165191},{\"RMSE\":0.9841386464633597},{\"RMSE\":0.9835357549088025},{\"RMSE\":0.9829345876314708},{\"RMSE\":0.9821203017364111},{\"RMSE\":0.9818316802189299},{\"RMSE\":0.9816052078293429},{\"RMSE\":0.9809809833072196},{\"RMSE\":0.9801633311414532},{\"RMSE\":0.9797265852678312},{\"RMSE\":0.9791747865780416},{\"RMSE\":0.9780508127621858},{\"RMSE\":0.9771359052275598},{\"RMSE\":0.9766265577310118},{\"RMSE\":0.9761495651105986},{\"RMSE\":0.9750372260126815},{\"RMSE\":0.9742999732539325},{\"RMSE\":0.9740170425698897},{\"RMSE\":0.9733456153377028},{\"RMSE\":0.9727012793910179},{\"RMSE\":0.9720668632630571},{\"RMSE\":0.9710393756530676},{\"RMSE\":0.9702463606326386},{\"RMSE\":0.9696155808753906},{\"RMSE\":0.9689624326425719},{\"RMSE\":0.9685570118550841},{\"RMSE\":0.9682444168125961},{\"RMSE\":0.9679028407232066},{\"RMSE\":0.9670878117242283},{\"RMSE\":0.9663847852058123},{\"RMSE\":0.9660918773023209},{\"RMSE\":0.9658728656146518},{\"RMSE\":0.965122972167277},{\"RMSE\":0.9646073951844681},{\"RMSE\":0.9639164843309841},{\"RMSE\":0.9631741313917963},{\"RMSE\":0.9622790612640452},{\"RMSE\":0.9616729098349931},{\"RMSE\":0.961168356544937},{\"RMSE\":0.9607196718998116},{\"RMSE\":0.960254926093292},{\"RMSE\":0.9597131520658663},{\"RMSE\":0.9591642856429657},{\"RMSE\":0.9581027837901114},{\"RMSE\":0.957474164153514},{\"RMSE\":0.9570484492284268},{\"RMSE\":0.9561313683240752},{\"RMSE\":0.9556107247225821},{\"RMSE\":0.9549530277103171},{\"RMSE\":0.9546180941991975},{\"RMSE\":0.9543578107750084},{\"RMSE\":0.9537574743888145},{\"RMSE\":0.9534382509214974},{\"RMSE\":0.9532078717582836},{\"RMSE\":0.9525948099218939},{\"RMSE\":0.9516321093079929},{\"RMSE\":0.95116052470769},{\"RMSE\":0.9506581713374331},{\"RMSE\":0.9500680149665085},{\"RMSE\":0.9494181986303598},{\"RMSE\":0.9489579555076161},{\"RMSE\":0.9484342822309668},{\"RMSE\":0.9479002115502403},{\"RMSE\":0.9474953526881756},{\"RMSE\":0.947283287326409},{\"RMSE\":0.9469239790550121},{\"RMSE\":0.94603356138317},{\"RMSE\":0.9455776496611618},{\"RMSE\":0.9451179373344539},{\"RMSE\":0.9446639365991151},{\"RMSE\":0.944059166828049},{\"RMSE\":0.9435154929209495},{\"RMSE\":0.9429955664061264},{\"RMSE\":0.9425132452817169},{\"RMSE\":0.9422849359435416},{\"RMSE\":0.941789621414451},{\"RMSE\":0.941371479949957},{\"RMSE\":0.9408209245458388},{\"RMSE\":0.9402414118538516},{\"RMSE\":0.9400572639883428},{\"RMSE\":0.9394346804326308},{\"RMSE\":0.9389325759804279},{\"RMSE\":0.938415496336323},{\"RMSE\":0.9380301013562296},{\"RMSE\":0.9377678315607351},{\"RMSE\":0.9375525535174926},{\"RMSE\":0.9368361423844416},{\"RMSE\":0.9363435031735181},{\"RMSE\":0.9361120041595666},{\"RMSE\":0.935795099505347},{\"RMSE\":0.9351703699360301},{\"RMSE\":0.9347898986587326},{\"RMSE\":0.9343636099021415},{\"RMSE\":0.9341313036643871},{\"RMSE\":0.9335492257551583},{\"RMSE\":0.9329227128528442},{\"RMSE\":0.9326277505613392},{\"RMSE\":0.9321856124288127},{\"RMSE\":0.9317851154590453},{\"RMSE\":0.9312652303117243},{\"RMSE\":0.9307834002464743},{\"RMSE\":0.9306056210030643},{\"RMSE\":0.929830641245995},{\"RMSE\":0.9294238698619707},{\"RMSE\":0.9288479732474713},{\"RMSE\":0.9285790903175708},{\"RMSE\":0.9280248758078682},{\"RMSE\":0.9274199797866144},{\"RMSE\":0.9269296426252875},{\"RMSE\":0.9260174970125874},{\"RMSE\":0.9253834649765613},{\"RMSE\":0.9249966959640101},{\"RMSE\":0.9240403035312684},{\"RMSE\":0.9237679340511036},{\"RMSE\":0.9230644535833628},{\"RMSE\":0.9225314006278609},{\"RMSE\":0.9222729540317078},{\"RMSE\":0.9219165638077333},{\"RMSE\":0.9211376433272173},{\"RMSE\":0.9208062247870241},{\"RMSE\":0.9203677102095816},{\"RMSE\":0.9199425119863},{\"RMSE\":0.9194235523752624},{\"RMSE\":0.9187182949907837},{\"RMSE\":0.9182936217051394},{\"RMSE\":0.9180479031066318},{\"RMSE\":0.9171915928757737},{\"RMSE\":0.9166113086975932},{\"RMSE\":0.9163496131495633},{\"RMSE\":0.9156623618790172},{\"RMSE\":0.9154581017466247},{\"RMSE\":0.9148651796518739},{\"RMSE\":0.914222630050092},{\"RMSE\":0.9138513315386069},{\"RMSE\":0.9130148139601899},{\"RMSE\":0.9125513307201175},{\"RMSE\":0.912129055640335},{\"RMSE\":0.9118304337912679},{\"RMSE\":0.911176437582498},{\"RMSE\":0.9107473904297795},{\"RMSE\":0.9105522103746523},{\"RMSE\":0.9100867988576197},{\"RMSE\":0.9095717214698816},{\"RMSE\":0.9087678891345005},{\"RMSE\":0.9084096754504342},{\"RMSE\":0.9079991244336759},{\"RMSE\":0.9077206687861684},{\"RMSE\":0.9073060279876397},{\"RMSE\":0.9066314503972495},{\"RMSE\":0.9061040833409123},{\"RMSE\":0.9057566719869182},{\"RMSE\":0.905556385341363},{\"RMSE\":0.9051081358186321},{\"RMSE\":0.9047414595480128},{\"RMSE\":0.9044991565329494},{\"RMSE\":0.9040349835329783},{\"RMSE\":0.903806122530822},{\"RMSE\":0.9032556705188004},{\"RMSE\":0.9024869905731783},{\"RMSE\":0.9023530131141008},{\"RMSE\":0.901720065956562},{\"RMSE\":0.9012323192450906},{\"RMSE\":0.9008850774531264},{\"RMSE\":0.9005228575574292},{\"RMSE\":0.8998563536199957},{\"RMSE\":0.8992573562393842},{\"RMSE\":0.8986306317453144},{\"RMSE\":0.8982147414187988},{\"RMSE\":0.8976471209683374},{\"RMSE\":0.8974282071524385},{\"RMSE\":0.8971389621357154},{\"RMSE\":0.8968897178342793},{\"RMSE\":0.8967056270659728},{\"RMSE\":0.8964684906832916},{\"RMSE\":0.8962084833682384},{\"RMSE\":0.8956914188987748},{\"RMSE\":0.8953616030316502},{\"RMSE\":0.8949683350190678},{\"RMSE\":0.8947263331844022},{\"RMSE\":0.8942720977919655},{\"RMSE\":0.893777866117476},{\"RMSE\":0.8931883276823525},{\"RMSE\":0.8930255219819663},{\"RMSE\":0.8927233509037137},{\"RMSE\":0.8924683578250797},{\"RMSE\":0.8922339746433176},{\"RMSE\":0.8918277743188733},{\"RMSE\":0.8913144826514748},{\"RMSE\":0.890938142271305},{\"RMSE\":0.8903584410265628},{\"RMSE\":0.8899622244484799},{\"RMSE\":0.8895927164662117},{\"RMSE\":0.8892743461235891},{\"RMSE\":0.8890303492425744},{\"RMSE\":0.8884145985591924},{\"RMSE\":0.8881818610924657},{\"RMSE\":0.8877377566246283},{\"RMSE\":0.887495000858298},{\"RMSE\":0.8871916224504048},{\"RMSE\":0.8868682116603507},{\"RMSE\":0.8864666544031857},{\"RMSE\":0.8860988260593218},{\"RMSE\":0.8855602361315714},{\"RMSE\":0.8853748548055091},{\"RMSE\":0.8851612186337502},{\"RMSE\":0.8849210560875513},{\"RMSE\":0.8846644929620249},{\"RMSE\":0.8842913235043536},{\"RMSE\":0.8836914307516613},{\"RMSE\":0.8833864837657504},{\"RMSE\":0.8831598776241242},{\"RMSE\":0.8829764608374789},{\"RMSE\":0.8824576900233762},{\"RMSE\":0.8821818581172685},{\"RMSE\":0.8818481667881376},{\"RMSE\":0.8816334442765192},{\"RMSE\":0.881135460448647},{\"RMSE\":0.8809165521897535},{\"RMSE\":0.880580644214814},{\"RMSE\":0.8801088760669894},{\"RMSE\":0.8795239596830422},{\"RMSE\":0.878993240294999},{\"RMSE\":0.8787004593860199},{\"RMSE\":0.8781894303124861},{\"RMSE\":0.8778105691949851},{\"RMSE\":0.8774489384792686},{\"RMSE\":0.8772351405096623},{\"RMSE\":0.876945751827057},{\"RMSE\":0.8763700012430404},{\"RMSE\":0.8760771122734652},{\"RMSE\":0.8758900121834549},{\"RMSE\":0.875384590014036},{\"RMSE\":0.8751553767279904},{\"RMSE\":0.8748825248027162},{\"RMSE\":0.8746765718978272},{\"RMSE\":0.8741995182843956},{\"RMSE\":0.8738579925046897},{\"RMSE\":0.8734755192745297},{\"RMSE\":0.8731090184008078},{\"RMSE\":0.8728303310013813},{\"RMSE\":0.8726306353771555},{\"RMSE\":0.8723285783305192},{\"RMSE\":0.8721342755278676},{\"RMSE\":0.8716621677265209},{\"RMSE\":0.8714889513619112},{\"RMSE\":0.8712415870193719},{\"RMSE\":0.8711000878750236},{\"RMSE\":0.870785849344447},{\"RMSE\":0.8705463451419265},{\"RMSE\":0.8700921355949922},{\"RMSE\":0.8695676479800091},{\"RMSE\":0.8691379105183029},{\"RMSE\":0.8687567081688868},{\"RMSE\":0.868436139496412},{\"RMSE\":0.8679502366667},{\"RMSE\":0.8674978710309509},{\"RMSE\":0.8671919390732096},{\"RMSE\":0.8665961495294641},{\"RMSE\":0.8661648782728257},{\"RMSE\":0.865757003225824},{\"RMSE\":0.8652530606870541}],\"test_best_error\":[]}}"
    },
  "oblivious_trees":
    [
      {
        "leaf_values":
          [
            -0.44503818462979816,
            0,
            -0.091094858196582168,
            0,
            0,
            0,
            0,
            0,
            -0.5247353125199905,
            0,
            0.6388461056743544,
            0,
            0,
            0,
            0,
            0,
            -0.025926012801303865,
            0,
            -0.37681731315380856,
            0,
            0.9181442585337346,
            0,
            -0.51541099899889264,
            0,
            -0.35945175115069672,
            0,
            0.046621824432844801,
            0,
            0.25575857030708371,
            0,
            -0.35873143088185983,
            0,
            0,
            0,
            0,
            0,
            0,
            0,
            0,
            0,
            -0.53191130632353945,
            -0.53399924274086463,
            1.1069279067422797,
            1.4834504839840554,
            0,
            0,
            0,
            0,
            0,
            0,
            0,
            0,
            0,
            0,
            0,
            0,
            -0.45945120247324539,
            -0.48393352639542514,
            0.45687483106501942,
            0.85658273339942281,
            -0.030117996151087796,
            -0.19445578248900097,
            -0.15001228622773913,
            0.070942167675270923
          ],
        "leaf_weights":
          [
            242,
            0,
            278,
            0,
            0,
            0,
            0,
            0,
            146,
            0,
            145,
            0,
            0,
            0,
            0,
            0,
            519,
            0,
            495,
            0,
            675,
            0,
            617,
            0,
            291,
            0,
            276,
            0,
            341,
            0,
            371,
            0,
            0,
            0,
            0,
            0,
            0,
            0,
            0,
            0,
            129,
            93,
            123,
            96,
            0,
            0,
            0,
            0,
            0,
            0,
            0,
            0,
            0,
            0,
            0,
            0,
            242,
            160,
            240,
            178,
            327,
            218,
            300,
            198
          ],
        "splits":
          [
            {
              "border":135.43136596679688,
              "float_feature_index":2,
              "split_index":222,
              "split_type":"FloatFeature"
            },
            {
              "border":0.5,
              "float_feature_index":0,
              "split_index":0,
              "split_type":"FloatFeature"
            },
            {
              "border":105,
              "float_feature_index":1,
              "split_index":6,
              "split_type":"FloatFeature"
            },
            {
              "border":91.790199279785156,
              "float_feature_index":2,
              "split_index":117,
              "split_type":"FloatFeature"
            },
            {
              "border":65,
              "float_feature_index":1,
              "split_index":2,
              "split_type":"FloatFeature"
            },
            {
              "border":115.20071411132813,
              "float_feature_index":2,
              "split_index":172,
              "split_type":"FloatFeature"
            }
          ]
      },
      {
        "leaf_values":
          [
            -0.30645974386616731,
            0,
            -0.23781978133680101,
            0,
            -0.47303254267471923,
            0,
            0.34869867798123166,
            0,
            0.49913232727648166,
            1.2640557840129072,
            -0.47405080387357262,
            -0.51433154924983715,
            -0.049992827506659565,
            0.61443097055382068,
            -0.28266760333456026,
            -0.42956214685952404,
            0,
            0,
            0,
            0,
            0,
            0,
            0,
            0,
            0,
            0,
            0,
            0,
            0,
            0,
            0,
            0,
            0,
            0,
            0,
            0,
            -0.49669309472756107,
            0,
            0.72715911276475687,
            0,
            0,
            0,
            0,
            0,
            -0.21838470125066967,
            0.25249035511121509,
            -0.025966406688080985,
            -0.32399590696227104,
            0,
            0,
            0,
            0,
            -0.51742963721186275,
            0,
            1.2337681606986737,
            0,
            0,
            0,
            0,
            0,
            -0.36720627013167745,
            -0.011455235820875138,
            0.33474739546362386,
            -0.14802308533570488
          ],
        "leaf_weights":
          [
            453,
            0,
            489,
            0,
            294,
            0,
            269,
            0,
            596,
            253,
            524,
            249,
            344,
            137,
            337,
            137,
            0,
            0,
            0,
            0,
            0,
            0,
            0,
            0,
            0,
            0,
            0,
            0,
            0,
            0,
            0,
            0,
            0,
            0,
            0,
            0,
            208,
            0,
            236,
            0,
            0,
            0,
            0,
            0,
            264,
            127,
            286,
            109,
            0,
            0,
            0,
            0,
            250,
            0,
            243,
            0,
            0,
            0,
            0,
            0,
            299,
            158,
            314,
            124
          ],
        "splits":
          [
            {
              "border":135,
              "float_feature_index":1,
              "split_index":9,
              "split_type":"FloatFeature"
            },
            {
              "border":0.5,
              "float_feature_index":0,
              "split_index":0,
              "split_type":"FloatFeature"
            },
            {
              "border":87.39312744140625,
              "float_feature_index":2,
              "split_index":107,
              "split_type":"FloatFeature"
            },
            {
              "border":85,
              "float_feature_index":1,
              "split_index":4,
              "split_type":"FloatFeature"
            },
            {
              "border":128.94358825683594,
              "float_feature_index":2,
              "split_index":206,
              "split_type":"FloatFeature"
            },
            {
              "border":110.43580627441406,
              "float_feature_index":2,
              "split_index":161,
              "split_type":"FloatFeature"
            }
          ]
      },
      {
        "leaf_values":
          [
            -0.32829024035222104,
            -0.26661012925772537,
            0,
            0,
            -0.22568301140419,
            -0.1727079357079972,
            0,
            0,
            -0.5195446282902898,
            -0.4834817893037841,
            0,
            0,
            0.78113617375091626,
            0.7258226850764351,
            0,
            0,
            0.40225205149878157,
            0.4917051444256782,
            1.106085315011196,
            1.0891684593372151,
            -0.50444134699401144,
            -0.45103349399887105,
            -0.51181925501290515,
            -0.49651964384533542,
            -0.34941996840421852,
            -0.18130008622378754,
            0.030649083509882869,
            0.19598954815372968,
            -0.091143834259709094,
            -0.0077168823159148451,
            -0.4244371517439024,
            -0.25002934145337441,
            -0.31079408298183564,
            -0.13206426506364669,
            0,
            0,
            -0.23522687334978309,
            -0.070197271914536147,
            0,
            0,
            -0.49604523387645438,
            -0.40764078576010915,
            0,
            0,
            0.6705470601069341,
            0.84027693652057622,
            0,
            0,
            0.43203487523872885,
            0.54909924198372018,
            1.0598769004347699,
            1.1136851354051069,
            -0.46689582986357869,
            -0.34420351300722629,
            -0.50403083251976311,
            -0.3991276328479586,
            -0.27600769860739588,
            0.023303189832821439,
            0.086695501216133244,
            0.41408402683049378,
            -0.079638524328577168,
            0.1864793741628113,
            -0.31226516165075419,
            -0.067113617185005012
          ],
        "leaf_weights":
          [
            193,
            152,
            0,
            0,
            167,
            154,
            0,
            0,
            155,
            175,
            0,
            0,
            197,
            160,
            0,
            0,
            162,
            122,
            78,
            74,
            133,
            117,
            68,
            88,
            150,
            125,
            89,
            66,
            143,
            137,
            76,
            54,
            219,
            195,
            0,
            0,
            238,
            201,
            0,
            0,
            237,
            174,
            0,
            0,
            219,
            197,
            0,
            0,
            180,
            148,
            95,
            77,
            170,
            141,
            85,
            66,
            178,
            143,
            109,
            87,
            171,
            153,
            99,
            83
          ],
        "splits":
          [
            {
              "border":52.682086944580078,
              "float_feature_index":5,
              "split_index":685,
              "split_type":"FloatFeature"
            },
            {
              "border":135,
              "float_feature_index":1,
              "split_index":9,
              "split_type":"FloatFeature"
            },
            {
              "border":0.5,
              "float_feature_index":0,
              "split_index":0,
              "split_type":"FloatFeature"
            },
            {
              "border":99.402725219726563,
              "float_feature_index":2,
              "split_index":134,
              "split_type":"FloatFeature"
            },
            {
              "border":95,
              "float_feature_index":1,
              "split_index":5,
              "split_type":"FloatFeature"
            },
            {
              "border":1.0524077415466309,
              "float_feature_index":3,
              "split_index":358,
              "split_type":"FloatFeature"
            }
          ]
      },
      {
        "leaf_values":
          [
            -0.29699928666222308,
            -0.18959398127669699,
            0,
            0,
            -0.37141979938871045,
            -0.28056489313657174,
            0,
            0,
            0,
            0,
            0,
            0,
            0,
            0,
            0,
            0,
            0.55296726814507613,
            0.62150056252368102,
            1.299262514214051,
            1.3246866042540504,
            -0.50485835724003414,
            -0.45008298759492105,
            -0.49949217152849318,
            -0.48240042742032813,
            0,
            0,
            0,
            0,
            0,
            0,
            0,
            0,
            -0.47134266957840504,
            -0.36395354870485769,
            0,
            0,
            0.029222605194715371,
            0.13911509049228432,
            0,
            0,
            -0.50865034056089908,
            -0.4604856147136272,
            0,
            0,
            0.81186753273349122,
            0.91435883218410985,
            0,
            0,
            0.051810405567704124,
            0.17641983127175231,
            0.74280614248038812,
            0.83038533050450547,
            -0.41958021253318428,
            -0.29704973318040889,
            -0.48988338948873972,
            -0.4050839934050442,
            -0.35437078283678164,
            -0.15875515669086993,
            0.028774082940709735,
            0.27967880888848551,
            0.0020030575382730038,
            0.17669316248569664,
            -0.36355264513625113,
            -0.13663567001578475
          ],
        "leaf_weights":
          [
            137,
            161,
            0,
            0,
            153,
            159,
            0,
            0,
            0,
            0,
            0,
            0,
            0,
            0,
            0,
            0,
            178,
            208,
            79,
            84,
            132,
            196,
            60,
            101,
            0,
            0,
            0,
            0,
            0,
            0,
            0,
            0,
            161,
            183,
            0,
            0,
            147,
            198,
            0,
            0,
            254,
            309,
            0,
            0,
            287,
            293,
            0,
            0,
            207,
            223,
            79,
            100,
            198,
            220,
            84,
            84,
            323,
            364,
            171,
            162,
            320,
            395,
            143,
            147
          ],
        "splits":
          [
            {
              "border":45.398048400878906,
              "float_feature_index":5,
              "split_index":667,
              "split_type":"FloatFeature"
            },
            {
              "border":135,
              "float_feature_index":1,
              "split_index":9,
              "split_type":"FloatFeature"
            },
            {
              "border":0.5,
              "float_feature_index":0,
              "split_index":0,
              "split_type":"FloatFeature"
            },
            {
              "border":102.61761474609375,
              "float_feature_index":2,
              "split_index":141,
              "split_type":"FloatFeature"
            },
            {
              "border":85,
              "float_feature_index":1,
              "split_index":4,
              "split_type":"FloatFeature"
            },
            {
              "border":73.274986267089844,
              "float_feature_index":2,
              "split_index":73,
              "split_type":"FloatFeature"
            }
          ]
      },
      {
        "leaf_values":
          [
            -0.41262853701240987,
            0,
            -0.26869078272702468,
            0,
            0,
            0,
            0,
            0,
            0.13100948740694984,
            1.1445936709903297,
            -0.47038538295020282,
            -0.4934997888469404,
            0,
            0,
            0,
            0,
            -0.46901056051122053,
            0,
            0.32566186575285583,
            0,
            -0.49103952166739245,
            0,
            1.1462651068444512,
            0,
            -0.26068525998512981,
            0.53185870705988936,
            -0.25990188016662635,
            -0.46306481500715241,
            -0.44520211983348085,
            -0.10487689472628733,
            0.40371239651744845,
            -0.26251760452205636,
            -0.34879190265207266,
            0,
            -0.23017634231885839,
            0,
            0,
            0,
            0,
            0,
            0.21947528455159362,
            1.1034947469694301,
            -0.4194341651524196,
            -0.47283052827655847,
            0,
            0,
            0,
            0,
            -0.44679038970879065,
            0,
            0.3015657185751881,
            0,
            -0.4835938916249139,
            0,
            1.0598507649728364,
            0,
            -0.14868300733909859,
            0.59397505038622578,
            -0.15787946318099633,
            -0.39613809959497792,
            -0.36524314591952389,
            0.077805409604941034,
            0.42888171653613405,
            -0.11323307478969653
          ],
        "leaf_weights":
          [
            59,
            0,
            45,
            0,
            0,
            0,
            0,
            0,
            122,
            114,
            110,
            101,
            0,
            0,
            0,
            0,
            64,
            0,
            64,
            0,
            78,
            0,
            92,
            0,
            173,
            150,
            168,
            126,
            210,
            170,
            235,
            168,
            79,
            0,
            118,
            0,
            0,
            0,
            0,
            0,
            246,
            186,
            224,
            166,
            0,
            0,
            0,
            0,
            138,
            0,
            140,
            0,
            192,
            0,
            183,
            0,
            351,
            263,
            335,
            278,
            416,
            372,
            402,
            362
          ],
        "splits":
          [
            {
              "border":115,
              "float_feature_index":1,
              "split_index":7,
              "split_type":"FloatFeature"
            },
            {
              "border":0.5,
              "float_feature_index":0,
              "split_index":0,
              "split_type":"FloatFeature"
            },
            {
              "border":106.92079162597656,
              "float_feature_index":2,
              "split_index":151,
              "split_type":"FloatFeature"
            },
            {
              "border":65,
              "float_feature_index":1,
              "split_index":2,
              "split_type":"FloatFeature"
            },
            {
              "border":72.151321411132813,
              "float_feature_index":2,
              "split_index":70,
              "split_type":"FloatFeature"
            },
            {
              "border":0.84165489673614502,
              "float_feature_index":3,
              "split_index":330,
              "split_type":"FloatFeature"
            }
          ]
      },
      {
        "leaf_values":
          [
            -0.24023326823554411,
            0,
            -0.3007305306675373,
            0,
            0,
            0,
            0,
            0,
            0,
            0,
            0,
            0,
            0,
            0,
            0,
            0,
            0.1887035471521108,
            0,
            -0.3862804543373668,
            0,
            0,
            0,
            0,
            0,
            0.55310964016088904,
            1.1821980563201,
            -0.45956351941612134,
            -0.47481768500997279,
            0,
            0,
            0,
            0,
            -0.41684017944982221,
            0,
            0.15479725281589757,
            0,
